<?xml version="1.0"?>
<opencv_storage>
<cascade>
  <stageType>BOOST</stageType>
  <featureType>HAAR</featureType>
  <height>24</height>
  <width>24</width>
  <stageParams>
    <boostType>GAB</boostType>
    <minHitRate>9.9500000476837158e-01</minHitRate>
    <maxFalseAlarm>5.0000000000000000e-01</maxFalseAlarm>
    <weightTrimRate>9.4999998807907104e-01</weightTrimRate>
    <maxDepth>1</maxDepth>
    <maxWeakCount>100</maxWeakCount></stageParams>
  <featureParams>
    <maxCatCount>0</maxCatCount>
    <featSize>1</featSize>
    <mode>BASIC</mode></featureParams>
  <stageNum>16</stageNum>
  <stages>
    <!-- stage 0 -->
    <_>
      <maxWeakCount>3</maxWeakCount>
      <stageThreshold>-1.3050229549407959e+00</stageThreshold>
      <weakClassifiers>
        <_>
          <internalNodes>
            0 -1 25 -1.4939278364181519e-01</internalNodes>
          <leafValues>
            1. -9.2307692766189575e-01</leafValues></_>
        <_>
          <internalNodes>
            0 -1 46 -2.4688946083188057e-02</internalNodes>
          <leafValues>
            6.2601637840270996e-01 -9.3539762496948242e-01</leafValues></_>
        <_>
          <internalNodes>
            0 -1 60 -9.1405212879180908e-04</internalNodes>
          <leafValues>
            5.5345159769058228e-01 -7.6096451282501221e-01</leafValues></_></weakClassifiers></_>
    <!-- stage 1 -->
    <_>
      <maxWeakCount>4</maxWeakCount>
      <stageThreshold>-1.6671376228332520e+00</stageThreshold>
      <weakClassifiers>
        <_>
          <internalNodes>
            0 -1 19 -8.0208569765090942e-02</internalNodes>
          <leafValues>
            1. -9.2307692766189575e-01</leafValues></_>
        <_>
          <internalNodes>
            0 -1 5 -3.1010439991950989e-01</internalNodes>
          <leafValues>
            6.0573738813400269e-01 -8.4166967868804932e-01</leafValues></_>
        <_>
          <internalNodes>
            0 -1 67 -1.9043240696191788e-02</internalNodes>
          <leafValues>
            6.0735982656478882e-01 -5.4014605283737183e-01</leafValues></_>
        <_>
          <internalNodes>
            0 -1 39 -9.8922714591026306e-02</internalNodes>
          <leafValues>
            6.4078700542449951e-01 -5.0975084304809570e-01</leafValues></_></weakClassifiers></_>
    <!-- stage 2 -->
    <_>
      <maxWeakCount>4</maxWeakCount>
      <stageThreshold>-1.8050661087036133e+00</stageThreshold>
      <weakClassifiers>
        <_>
          <internalNodes>
            0 -1 72 -1.5868844091892242e-01</internalNodes>
          <leafValues>
            7.8571426868438721e-01 -9.2471045255661011e-01</leafValues></_>
        <_>
          <internalNodes>
            0 -1 36 -1.1933591216802597e-01</internalNodes>
          <leafValues>
            6.2676084041595459e-01 -7.7496308088302612e-01</leafValues></_>
        <_>
          <internalNodes>
            0 -1 49 -5.4323606193065643e-02</internalNodes>
          <leafValues>
            2.7948433160781860e-01 -6.5023410320281982e-01</leafValues></_>
        <_>
          <internalNodes>
            0 -1 16 6.2055543065071106e-02</internalNodes>
          <leafValues>
            -3.8487696647644043e-01 6.3825064897537231e-01</leafValues></_></weakClassifiers></_>
    <!-- stage 3 -->
    <_>
      <maxWeakCount>4</maxWeakCount>
      <stageThreshold>-1.6816408634185791e+00</stageThreshold>
      <weakClassifiers>
        <_>
          <internalNodes>
            0 -1 24 -2.8314042091369629e-01</internalNodes>
          <leafValues>
            8.9999997615814209e-01 -9.1379308700561523e-01</leafValues></_>
        <_>
          <internalNodes>
            0 -1 47 -9.7724460065364838e-02</internalNodes>
          <leafValues>
            6.9584190845489502e-01 -7.5318312644958496e-01</leafValues></_>
        <_>
          <internalNodes>
            0 -1 45 3.6182471376378089e-05</internalNodes>
          <leafValues>
            -6.0983151197433472e-01 5.6584870815277100e-01</leafValues></_>
        <_>
          <internalNodes>
            0 -1 75 3.2711323001421988e-05</internalNodes>
          <leafValues>
            -5.4212206602096558e-01 5.9516686201095581e-01</leafValues></_></weakClassifiers></_>
    <!-- stage 4 -->
    <_>
      <maxWeakCount>6</maxWeakCount>
      <stageThreshold>-2.1320962905883789e+00</stageThreshold>
      <weakClassifiers>
        <_>
          <internalNodes>
            0 -1 66 -5.5303461849689484e-02</internalNodes>
          <leafValues>
            5.6521737575531006e-01 -9.1162341833114624e-01</leafValues></_>
        <_>
          <internalNodes>
            0 -1 64 -4.0727918967604637e-03</internalNodes>
          <leafValues>
            6.8423575162887573e-01 -6.6080176830291748e-01</leafValues></_>
        <_>
          <internalNodes>
            0 -1 68 4.0596001781523228e-04</internalNodes>
          <leafValues>
            -5.9281343221664429e-01 4.1028219461441040e-01</leafValues></_>
        <_>
          <internalNodes>
            0 -1 1 -1.2540790521597955e-05</internalNodes>
          <leafValues>
            -8.5754853487014771e-01 2.6003110408782959e-01</leafValues></_>
        <_>
          <internalNodes>
            0 -1 61 -5.4461303079733625e-05</internalNodes>
          <leafValues>
            4.2493703961372375e-01 -6.0760229825973511e-01</leafValues></_>
        <_>
          <internalNodes>
            0 -1 57 -1.0603985283523798e-03</internalNodes>
          <leafValues>
            5.1301038265228271e-01 -5.3734189271926880e-01</leafValues></_></weakClassifiers></_>
    <!-- stage 5 -->
    <_>
      <maxWeakCount>5</maxWeakCount>
      <stageThreshold>-1.7954342365264893e+00</stageThreshold>
      <weakClassifiers>
        <_>
          <internalNodes>
            0 -1 79 -1.5668290853500366e-01</internalNodes>
          <leafValues>
            7.7777779102325439e-01 -9.2285436391830444e-01</leafValues></_>
        <_>
          <internalNodes>
            0 -1 13 -1.6815081238746643e-01</internalNodes>
          <leafValues>
            7.5540947914123535e-01 -7.0405817031860352e-01</leafValues></_>
        <_>
          <internalNodes>
            0 -1 12 2.1549662051256746e-04</internalNodes>
          <leafValues>
            8.5917912423610687e-02 -9.7569251060485840e-01</leafValues></_>
        <_>
          <internalNodes>
            0 -1 50 4.6409261994995177e-04</internalNodes>
          <leafValues>
            -4.4861656427383423e-01 4.5221921801567078e-01</leafValues></_>
        <_>
          <internalNodes>
            0 -1 83 1.0410232789581642e-05</internalNodes>
          <leafValues>
            3.4872043132781982e-01 -7.0665884017944336e-01</leafValues></_></weakClassifiers></_>
    <!-- stage 6 -->
    <_>
      <maxWeakCount>5</maxWeakCount>
      <stageThreshold>-2.2066023349761963e+00</stageThreshold>
      <weakClassifiers>
        <_>
          <internalNodes>
            0 -1 27 -4.9306869506835938e-02</internalNodes>
          <leafValues>
            8.0952382087707520e-01 -9.1371047496795654e-01</leafValues></_>
        <_>
          <internalNodes>
            0 -1 40 -2.6578228920698166e-02</internalNodes>
          <leafValues>
            3.4246763586997986e-01 -7.0334237813949585e-01</leafValues></_>
        <_>
          <internalNodes>
            0 -1 28 -1.1502585039124824e-05</internalNodes>
          <leafValues>
            -8.7118899822235107e-01 2.3943844437599182e-01</leafValues></_>
        <_>
          <internalNodes>
            0 -1 9 4.5555888209491968e-04</internalNodes>
          <leafValues>
            1.3864161074161530e-01 -1.</leafValues></_>
        <_>
          <internalNodes>
            0 -1 3 1.7204065807163715e-04</internalNodes>
          <leafValues>
            1.4299778640270233e-01 -1.</leafValues></_></weakClassifiers></_>
    <!-- stage 7 -->
    <_>
      <maxWeakCount>5</maxWeakCount>
      <stageThreshold>-1.9041523933410645e+00</stageThreshold>
      <weakClassifiers>
        <_>
          <internalNodes>
            0 -1 51 -1.3499873876571655e-01</internalNodes>
          <leafValues>
            6.9230771064758301e-01 -9.1907513141632080e-01</leafValues></_>
        <_>
          <internalNodes>
            0 -1 7 -1.1904574930667877e-01</internalNodes>
          <leafValues>
            5.6154239177703857e-01 -6.8444055318832397e-01</leafValues></_>
        <_>
          <internalNodes>
            0 -1 14 -1.5219727356452495e-04</internalNodes>
          <leafValues>
            -9.0186405181884766e-01 1.4695920050144196e-01</leafValues></_>
        <_>
          <internalNodes>
            0 -1 28 -1.0924575690296479e-05</internalNodes>
          <leafValues>
            -7.4755209684371948e-01 2.1180304884910583e-01</leafValues></_>
        <_>
          <internalNodes>
            0 -1 43 -6.0997977852821350e-03</internalNodes>
          <leafValues>
            3.8942438364028931e-01 -5.2012479305267334e-01</leafValues></_></weakClassifiers></_>
    <!-- stage 8 -->
    <_>
      <maxWeakCount>6</maxWeakCount>
      <stageThreshold>-1.8668755292892456e+00</stageThreshold>
      <weakClassifiers>
        <_>
          <internalNodes>
            0 -1 52 -3.6722905933856964e-02</internalNodes>
          <leafValues>
            6.4705884456634521e-01 -9.0448904037475586e-01</leafValues></_>
        <_>
          <internalNodes>
            0 -1 29 -2.8518691658973694e-02</internalNodes>
          <leafValues>
            3.4712925553321838e-01 -6.8339556455612183e-01</leafValues></_>
        <_>
          <internalNodes>
            0 -1 8 5.2006202167831361e-05</internalNodes>
          <leafValues>
            -4.7711318731307983e-01 6.0269635915756226e-01</leafValues></_>
        <_>
          <internalNodes>
            0 -1 76 8.6147217079997063e-03</internalNodes>
          <leafValues>
            -4.4564738869667053e-01 5.1520186662673950e-01</leafValues></_>
        <_>
          <internalNodes>
            0 -1 0 -2.4294777540490031e-04</internalNodes>
          <leafValues>
            -8.8893562555313110e-01 2.1869349479675293e-01</leafValues></_>
        <_>
          <internalNodes>
            0 -1 23 1.2265273835510015e-03</internalNodes>
          <leafValues>
            -4.8509797453880310e-01 4.2507618665695190e-01</leafValues></_></weakClassifiers></_>
    <!-- stage 9 -->
    <_>
      <maxWeakCount>5</maxWeakCount>
      <stageThreshold>-1.7057940959930420e+00</stageThreshold>
      <weakClassifiers>
        <_>
          <internalNodes>
            0 -1 42 -2.6336401700973511e-01</internalNodes>
          <leafValues>
            6.6666668653488159e-01 -9.0630972385406494e-01</leafValues></_>
        <_>
          <internalNodes>
            0 -1 6 -6.5254196524620056e-02</internalNodes>
          <leafValues>
            6.2182325124740601e-01 -6.1877912282943726e-01</leafValues></_>
        <_>
          <internalNodes>
            0 -1 15 4.9926212523132563e-04</internalNodes>
          <leafValues>
            -6.6143560409545898e-01 2.3114010691642761e-01</leafValues></_>
        <_>
          <internalNodes>
            0 -1 63 -1.5880560385994613e-04</internalNodes>
          <leafValues>
            -1. 1.6310933232307434e-01</leafValues></_>
        <_>
          <internalNodes>
            0 -1 73 -4.6990178816486150e-05</internalNodes>
          <leafValues>
            3.2010293006896973e-01 -5.7495468854904175e-01</leafValues></_></weakClassifiers></_>
    <!-- stage 10 -->
    <_>
      <maxWeakCount>7</maxWeakCount>
      <stageThreshold>-1.6819653511047363e+00</stageThreshold>
      <weakClassifiers>
        <_>
          <internalNodes>
            0 -1 82 1.3523807749152184e-02</internalNodes>
          <leafValues>
            -9.0585976839065552e-01 3.0434781312942505e-01</leafValues></_>
        <_>
          <internalNodes>
            0 -1 62 4.4503845274448395e-03</internalNodes>
          <leafValues>
            -6.2938547134399414e-01 4.7169175744056702e-01</leafValues></_>
        <_>
          <internalNodes>
            0 -1 4 5.4970546625554562e-04</internalNodes>
          <leafValues>
            1.2845046818256378e-01 -8.9994525909423828e-01</leafValues></_>
        <_>
          <internalNodes>
            0 -1 54 2.2473820718005300e-04</internalNodes>
          <leafValues>
            -5.2554494142532349e-01 3.3736643195152283e-01</leafValues></_>
        <_>
          <internalNodes>
            0 -1 2 -1.9954567775130272e-02</internalNodes>
          <leafValues>
            4.8024487495422363e-01 -3.4871956706047058e-01</leafValues></_>
        <_>
          <internalNodes>
            0 -1 11 2.6882663951255381e-04</internalNodes>
          <leafValues>
            -4.9438363313674927e-01 3.5750901699066162e-01</leafValues></_>
        <_>
          <internalNodes>
            0 -1 56 4.4768312363885343e-05</internalNodes>
          <leafValues>
            -4.3388921022415161e-01 4.0706920623779297e-01</leafValues></_></weakClassifiers></_>
    <!-- stage 11 -->
    <_>
      <maxWeakCount>6</maxWeakCount>
      <stageThreshold>-1.9132788181304932e+00</stageThreshold>
      <weakClassifiers>
        <_>
          <internalNodes>
            0 -1 34 -1.6708236932754517e-01</internalNodes>
          <leafValues>
            6.4705884456634521e-01 -9.0448904037475586e-01</leafValues></_>
        <_>
          <internalNodes>
            0 -1 74 4.3443627655506134e-03</internalNodes>
          <leafValues>
            -6.8452531099319458e-01 3.7236809730529785e-01</leafValues></_>
        <_>
          <internalNodes>
            0 -1 10 3.7635152693837881e-04</internalNodes>
          <leafValues>
            1.3899581134319305e-01 -8.1488108634948730e-01</leafValues></_>
        <_>
          <internalNodes>
            0 -1 22 4.5188227668404579e-03</internalNodes>
          <leafValues>
            1.6148278117179871e-01 -8.5540097951889038e-01</leafValues></_>
        <_>
          <internalNodes>
            0 -1 70 -4.3156938627362251e-03</internalNodes>
          <leafValues>
            2.2887822985649109e-01 -7.0209014415740967e-01</leafValues></_>
        <_>
          <internalNodes>
            0 -1 21 -4.3024739716202021e-04</internalNodes>
          <leafValues>
            -1. 1.6326248645782471e-01</leafValues></_></weakClassifiers></_>
    <!-- stage 12 -->
    <_>
      <maxWeakCount>6</maxWeakCount>
      <stageThreshold>-1.6958223581314087e+00</stageThreshold>
      <weakClassifiers>
        <_>
          <internalNodes>
            0 -1 53 -2.3849257826805115e-01</internalNodes>
          <leafValues>
            1. -8.9573460817337036e-01</leafValues></_>
        <_>
          <internalNodes>
            0 -1 44 -7.4430510401725769e-02</internalNodes>
          <leafValues>
            7.3326623439788818e-01 -5.9364241361618042e-01</leafValues></_>
        <_>
          <internalNodes>
            0 -1 48 -9.1565519571304321e-02</internalNodes>
          <leafValues>
            6.6863954067230225e-01 -3.0699148774147034e-01</leafValues></_>
        <_>
          <internalNodes>
            0 -1 78 -3.6850731819868088e-02</internalNodes>
          <leafValues>
            6.9008237123489380e-01 -2.2387430071830750e-01</leafValues></_>
        <_>
          <internalNodes>
            0 -1 80 4.4844530522823334e-02</internalNodes>
          <leafValues>
            -3.1357362866401672e-01 5.7222080230712891e-01</leafValues></_>
        <_>
          <internalNodes>
            0 -1 69 -1.1140226852148771e-03</internalNodes>
          <leafValues>
            6.3799411058425903e-01 -2.2638002038002014e-01</leafValues></_></weakClassifiers></_>
    <!-- stage 13 -->
    <_>
      <maxWeakCount>7</maxWeakCount>
      <stageThreshold>-1.7539516687393188e+00</stageThreshold>
      <weakClassifiers>
        <_>
          <internalNodes>
            0 -1 71 -6.9735191762447357e-02</internalNodes>
          <leafValues>
            1. -8.9573460817337036e-01</leafValues></_>
        <_>
          <internalNodes>
            0 -1 77 1.1279797035967931e-05</internalNodes>
          <leafValues>
            -1.7483121156692505e-01 -9.0052497386932373e-01</leafValues></_>
        <_>
          <internalNodes>
            0 -1 17 -1.0304410352546256e-05</internalNodes>
          <leafValues>
            -6.9992733001708984e-01 1.2569044530391693e-01</leafValues></_>
        <_>
          <internalNodes>
            0 -1 55 -1.3317883014678955e-01</internalNodes>
          <leafValues>
            4.9573811888694763e-01 -3.2441070675849915e-01</leafValues></_>
        <_>
          <internalNodes>
            0 -1 85 1.3589955415227450e-05</internalNodes>
          <leafValues>
            3.3656266331672668e-01 -6.3416606187820435e-01</leafValues></_>
        <_>
          <internalNodes>
            0 -1 37 9.8973832791671157e-05</internalNodes>
          <leafValues>
            -6.2809640169143677e-01 2.4105979502201080e-01</leafValues></_>
        <_>
          <internalNodes>
            0 -1 81 -5.1725655794143677e-02</internalNodes>
          <leafValues>
            5.7533234357833862e-01 -3.3659434318542480e-01</leafValues></_></weakClassifiers></_>
    <!-- stage 14 -->
    <_>
      <maxWeakCount>7</maxWeakCount>
      <stageThreshold>-1.8347895145416260e+00</stageThreshold>
      <weakClassifiers>
        <_>
          <internalNodes>
            0 -1 59 -1.9706141948699951e-01</internalNodes>
          <leafValues>
            1. -8.9753317832946777e-01</leafValues></_>
        <_>
          <internalNodes>
            0 -1 65 -2.0352277159690857e-01</internalNodes>
          <leafValues>
            4.2241200804710388e-01 -6.3040399551391602e-01</leafValues></_>
        <_>
          <internalNodes>
            0 -1 32 3.7163370847702026e-01</internalNodes>
          <leafValues>
            -3.4053581953048706e-01 7.2402316331863403e-01</leafValues></_>
        <_>
          <internalNodes>
            0 -1 35 1.8644044757820666e-04</internalNodes>
          <leafValues>
            -3.3901634812355042e-01 5.1485329866409302e-01</leafValues></_>
        <_>
          <internalNodes>
            0 -1 30 1.7981003969907761e-02</internalNodes>
          <leafValues>
            1.9567324221134186e-01 -9.5101708173751831e-01</leafValues></_>
        <_>
          <internalNodes>
            0 -1 31 -2.1003619767725468e-03</internalNodes>
          <leafValues>
            7.6850080490112305e-01 -2.2876338660717010e-01</leafValues></_>
        <_>
          <internalNodes>
            0 -1 20 6.0238271544221789e-05</internalNodes>
          <leafValues>
            4.1660240292549133e-01 -4.4807973504066467e-01</leafValues></_></weakClassifiers></_>
    <!-- stage 15 -->
    <_>
      <maxWeakCount>7</maxWeakCount>
      <stageThreshold>-2.0262842178344727e+00</stageThreshold>
      <weakClassifiers>
        <_>
          <internalNodes>
            0 -1 84 2.5795537978410721e-02</internalNodes>
          <leafValues>
            -9.0239232778549194e-01 3.6842104792594910e-01</leafValues></_>
        <_>
          <internalNodes>
            0 -1 58 2.9446114785969257e-03</internalNodes>
          <leafValues>
            -8.0015027523040771e-01 -1.7027421295642853e-01</leafValues></_>
        <_>
          <internalNodes>
            0 -1 18 9.9919770946144126e-06</internalNodes>
          <leafValues>
            1.3145925104618073e-01 -7.0232015848159790e-01</leafValues></_>
        <_>
          <internalNodes>
            0 -1 38 2.6429846184328198e-04</internalNodes>
          <leafValues>
            1.4956215023994446e-01 -9.0729457139968872e-01</leafValues></_>
        <_>
          <internalNodes>
            0 -1 33 -1.8424336612224579e-01</internalNodes>
          <leafValues>
            3.8703334331512451e-01 -4.3041595816612244e-01</leafValues></_>
        <_>
          <internalNodes>
            0 -1 26 6.3011416932567954e-04</internalNodes>
          <leafValues>
            -4.1500970721244812e-01 5.4431879520416260e-01</leafValues></_>
        <_>
          <internalNodes>
            0 -1 41 -3.8779515773057938e-02</internalNodes>
          <leafValues>
            -8.0160969495773315e-01 2.5699269771575928e-01</leafValues></_></weakClassifiers></_></stages>
  <features>
    <_>
      <rects>
        <_>
          0 0 1 12 -1.</_>
        <_>
          0 4 1 4 3.</_></rects>
      <tilted>0</tilted></_>
    <_>
      <rects>
        <_>
          0 0 1 10 -1.</_>
        <_>
          0 5 1 5 2.</_></rects>
      <tilted>0</tilted></_>
    <_>
      <rects>
        <_>
          0 0 10 12 -1.</_>
        <_>
          0 0 5 6 2.</_>
        <_>
          5 6 5 6 2.</_></rects>
      <tilted>0</tilted></_>
    <_>
      <rects>
        <_>
          0 2 3 2 -1.</_>
        <_>
          1 2 1 2 3.</_></rects>
      <tilted>0</tilted></_>
    <_>
      <rects>
        <_>
          0 4 1 6 -1.</_>
        <_>
          0 6 1 2 3.</_></rects>
      <tilted>0</tilted></_>
    <_>
      <rects>
        <_>
          0 9 24 8 -1.</_>
        <_>
          8 9 8 8 3.</_></rects>
      <tilted>0</tilted></_>
    <_>
      <rects>
        <_>
          0 10 24 1 -1.</_>
        <_>
          8 10 8 1 3.</_></rects>
      <tilted>0</tilted></_>
    <_>
      <rects>
        <_>
          0 10 24 2 -1.</_>
        <_>
          8 10 8 2 3.</_></rects>
      <tilted>0</tilted></_>
    <_>
      <rects>
        <_>
          0 11 2 2 -1.</_>
        <_>
          1 11 1 2 2.</_></rects>
      <tilted>0</tilted></_>
    <_>
      <rects>
        <_>
          0 11 3 3 -1.</_>
        <_>
          1 11 1 3 3.</_></rects>
      <tilted>0</tilted></_>
    <_>
      <rects>
        <_>
          0 23 9 1 -1.</_>
        <_>
          3 23 3 1 3.</_></rects>
      <tilted>0</tilted></_>
    <_>
      <rects>
        <_>
          1 6 9 1 -1.</_>
        <_>
          4 6 3 1 3.</_></rects>
      <tilted>0</tilted></_>
    <_>
      <rects>
        <_>
          1 11 3 3 -1.</_>
        <_>
          2 11 1 3 3.</_></rects>
      <tilted>0</tilted></_>
    <_>
      <rects>
        <_>
          1 13 21 3 -1.</_>
        <_>
          8 13 7 3 3.</_></rects>
      <tilted>0</tilted></_>
    <_>
      <rects>
        <_>
          1 18 3 6 -1.</_>
        <_>
          2 18 1 6 3.</_></rects>
      <tilted>0</tilted></_>
    <_>
      <rects>
        <_>
          2 0 12 3 -1.</_>
        <_>
          6 0 4 3 3.</_></rects>
      <tilted>0</tilted></_>
    <_>
      <rects>
        <_>
          2 1 19 12 -1.</_>
        <_>
          2 5 19 4 3.</_></rects>
      <tilted>0</tilted></_>
    <_>
      <rects>
        <_>
          3 0 12 1 -1.</_>
        <_>
          7 0 4 1 3.</_></rects>
      <tilted>0</tilted></_>
    <_>
      <rects>
        <_>
          3 11 1 8 -1.</_>
        <_>
          3 15 1 4 2.</_></rects>
      <tilted>0</tilted></_>
    <_>
      <rects>
        <_>
          3 13 18 2 -1.</_>
        <_>
          12 13 9 2 2.</_></rects>
      <tilted>0</tilted></_>
    <_>
      <rects>
        <_>
          3 18 6 6 -1.</_>
        <_>
          5 18 2 6 3.</_></rects>
      <tilted>0</tilted></_>
    <_>
      <rects>
        <_>
          3 19 6 2 -1.</_>
        <_>
          5 19 2 2 3.</_></rects>
      <tilted>0</tilted></_>
    <_>
      <rects>
        <_>
          4 0 18 1 -1.</_>
        <_>
          13 0 9 1 2.</_></rects>
      <tilted>0</tilted></_>
    <_>
      <rects>
        <_>
          4 8 4 12 -1.</_>
        <_>
          4 12 4 4 3.</_></rects>
      <tilted>0</tilted></_>
    <_>
      <rects>
        <_>
          4 10 18 7 -1.</_>
        <_>
          13 10 9 7 2.</_></rects>
      <tilted>0</tilted></_>
    <_>
      <rects>
        <_>
          4 11 18 4 -1.</_>
        <_>
          13 11 9 4 2.</_></rects>
      <tilted>0</tilted></_>
    <_>
      <rects>
        <_>
          4 12 4 3 -1.</_>
        <_>
          6 12 2 3 2.</_></rects>
      <tilted>0</tilted></_>
    <_>
      <rects>
        <_>
          4 14 18 1 -1.</_>
        <_>
          13 14 9 1 2.</_></rects>
      <tilted>0</tilted></_>
    <_>
      <rects>
        <_>
          5 0 2 20 -1.</_>
        <_>
          5 10 2 10 2.</_></rects>
      <tilted>0</tilted></_>
    <_>
      <rects>
        <_>
          5 0 10 6 -1.</_>
        <_>
          5 3 10 3 2.</_></rects>
      <tilted>0</tilted></_>
    <_>
      <rects>
        <_>
          5 16 9 4 -1.</_>
        <_>
          8 16 3 4 3.</_></rects>
      <tilted>0</tilted></_>
    <_>
      <rects>
        <_>
          6 0 2 4 -1.</_>
        <_>
          7 0 1 4 2.</_></rects>
      <tilted>0</tilted></_>
    <_>
      <rects>
        <_>
          6 1 18 18 -1.</_>
        <_>
          15 1 9 18 2.</_></rects>
      <tilted>0</tilted></_>
    <_>
      <rects>
        <_>
          6 4 18 15 -1.</_>
        <_>
          12 4 6 15 3.</_></rects>
      <tilted>0</tilted></_>
    <_>
      <rects>
        <_>
          6 10 12 6 -1.</_>
        <_>
          12 10 6 6 2.</_></rects>
      <tilted>0</tilted></_>
    <_>
      <rects>
        <_>
          6 12 4 1 -1.</_>
        <_>
          8 12 2 1 2.</_></rects>
      <tilted>0</tilted></_>
    <_>
      <rects>
        <_>
          6 13 12 8 -1.</_>
        <_>
          10 13 4 8 3.</_></rects>
      <tilted>0</tilted></_>
    <_>
      <rects>
        <_>
          6 17 6 6 -1.</_>
        <_>
          8 17 2 6 3.</_></rects>
      <tilted>0</tilted></_>
    <_>
      <rects>
        <_>
          7 0 3 1 -1.</_>
        <_>
          8 0 1 1 3.</_></rects>
      <tilted>0</tilted></_>
    <_>
      <rects>
        <_>
          7 0 10 21 -1.</_>
        <_>
          7 7 10 7 3.</_></rects>
      <tilted>0</tilted></_>
    <_>
      <rects>
        <_>
          7 0 13 4 -1.</_>
        <_>
          7 2 13 2 2.</_></rects>
      <tilted>0</tilted></_>
    <_>
      <rects>
        <_>
          7 3 10 8 -1.</_>
        <_>
          12 3 5 8 2.</_></rects>
      <tilted>0</tilted></_>
    <_>
      <rects>
        <_>
          7 9 14 8 -1.</_>
        <_>
          14 9 7 8 2.</_></rects>
      <tilted>0</tilted></_>
    <_>
      <rects>
        <_>
          7 10 9 6 -1.</_>
        <_>
          7 12 9 2 3.</_></rects>
      <tilted>0</tilted></_>
    <_>
      <rects>
        <_>
          7 11 10 3 -1.</_>
        <_>
          12 11 5 3 2.</_></rects>
      <tilted>0</tilted></_>
    <_>
      <rects>
        <_>
          7 12 2 1 -1.</_>
        <_>
          8 12 1 1 2.</_></rects>
      <tilted>0</tilted></_>
    <_>
      <rects>
        <_>
          7 12 6 11 -1.</_>
        <_>
          10 12 3 11 2.</_></rects>
      <tilted>0</tilted></_>
    <_>
      <rects>
        <_>
          7 12 12 7 -1.</_>
        <_>
          11 12 4 7 3.</_></rects>
      <tilted>0</tilted></_>
    <_>
      <rects>
        <_>
          7 15 9 8 -1.</_>
        <_>
          10 15 3 8 3.</_></rects>
      <tilted>0</tilted></_>
    <_>
      <rects>
        <_>
          8 6 15 12 -1.</_>
        <_>
          13 6 5 12 3.</_></rects>
      <tilted>0</tilted></_>
    <_>
      <rects>
        <_>
          8 10 4 2 -1.</_>
        <_>
          10 10 2 2 2.</_></rects>
      <tilted>0</tilted></_>
    <_>
      <rects>
        <_>
          8 11 12 5 -1.</_>
        <_>
          14 11 6 5 2.</_></rects>
      <tilted>0</tilted></_>
    <_>
      <rects>
        <_>
          8 14 12 1 -1.</_>
        <_>
          14 14 6 1 2.</_></rects>
      <tilted>0</tilted></_>
    <_>
      <rects>
        <_>
          9 1 12 16 -1.</_>
        <_>
          9 1 6 8 2.</_>
        <_>
          15 9 6 8 2.</_></rects>
      <tilted>0</tilted></_>
    <_>
      <rects>
        <_>
          9 3 1 6 -1.</_>
        <_>
          9 6 1 3 2.</_></rects>
      <tilted>0</tilted></_>
    <_>
      <rects>
        <_>
          9 4 10 18 -1.</_>
        <_>
          14 4 5 18 2.</_></rects>
      <tilted>0</tilted></_>
    <_>
      <rects>
        <_>
          9 12 2 1 -1.</_>
        <_>
          10 12 1 1 2.</_></rects>
      <tilted>0</tilted></_>
    <_>
      <rects>
        <_>
          9 12 7 3 -1.</_>
        <_>
          9 13 7 1 3.</_></rects>
      <tilted>0</tilted></_>
    <_>
      <rects>
        <_>
          9 20 15 3 -1.</_>
        <_>
          14 20 5 3 3.</_></rects>
      <tilted>0</tilted></_>
    <_>
      <rects>
        <_>
          10 10 10 8 -1.</_>
        <_>
          15 10 5 8 2.</_></rects>
      <tilted>0</tilted></_>
    <_>
      <rects>
        <_>
          10 10 7 3 -1.</_>
        <_>
          10 11 7 1 3.</_></rects>
      <tilted>0</tilted></_>
    <_>
      <rects>
        <_>
          10 17 2 6 -1.</_>
        <_>
          10 17 1 3 2.</_>
        <_>
          11 20 1 3 2.</_></rects>
      <tilted>0</tilted></_>
    <_>
      <rects>
        <_>
          10 22 3 2 -1.</_>
        <_>
          10 23 3 1 2.</_></rects>
      <tilted>0</tilted></_>
    <_>
      <rects>
        <_>
          11 0 2 1 -1.</_>
        <_>
          12 0 1 1 2.</_></rects>
      <tilted>0</tilted></_>
    <_>
      <rects>
        <_>
          11 22 6 2 -1.</_>
        <_>
          11 22 3 1 2.</_>
        <_>
          14 23 3 1 2.</_></rects>
      <tilted>0</tilted></_>
    <_>
      <rects>
        <_>
          12 5 6 18 -1.</_>
        <_>
          12 11 6 6 3.</_></rects>
      <tilted>0</tilted></_>
    <_>
      <rects>
        <_>
          12 11 12 2 -1.</_>
        <_>
          16 11 4 2 3.</_></rects>
      <tilted>0</tilted></_>
    <_>
      <rects>
        <_>
          13 5 4 17 -1.</_>
        <_>
          15 5 2 17 2.</_></rects>
      <tilted>0</tilted></_>
    <_>
      <rects>
        <_>
          13 13 2 6 -1.</_>
        <_>
          13 13 1 3 2.</_>
        <_>
          14 16 1 3 2.</_></rects>
      <tilted>0</tilted></_>
    <_>
      <rects>
        <_>
          13 14 1 3 -1.</_>
        <_>
          13 15 1 1 3.</_></rects>
      <tilted>0</tilted></_>
    <_>
      <rects>
        <_>
          14 0 10 12 -1.</_>
        <_>
          14 6 10 6 2.</_></rects>
      <tilted>0</tilted></_>
    <_>
      <rects>
        <_>
          14 3 1 18 -1.</_>
        <_>
          14 9 1 6 3.</_></rects>
      <tilted>0</tilted></_>
    <_>
      <rects>
        <_>
          14 5 4 18 -1.</_>
        <_>
          14 11 4 6 3.</_></rects>
      <tilted>0</tilted></_>
    <_>
      <rects>
        <_>
          14 10 2 1 -1.</_>
        <_>
          15 10 1 1 2.</_></rects>
      <tilted>0</tilted></_>
    <_>
      <rects>
        <_>
          14 12 2 6 -1.</_>
        <_>
          14 12 1 3 2.</_>
        <_>
          15 15 1 3 2.</_></rects>
      <tilted>0</tilted></_>
    <_>
      <rects>
        <_>
          14 14 2 1 -1.</_>
        <_>
          15 14 1 1 2.</_></rects>
      <tilted>0</tilted></_>
    <_>
      <rects>
        <_>
          14 14 1 10 -1.</_>
        <_>
          14 19 1 5 2.</_></rects>
      <tilted>0</tilted></_>
    <_>
      <rects>
        <_>
          15 0 8 1 -1.</_>
        <_>
          19 0 4 1 2.</_></rects>
      <tilted>0</tilted></_>
    <_>
      <rects>
        <_>
          15 2 9 12 -1.</_>
        <_>
          18 2 3 12 3.</_></rects>
      <tilted>0</tilted></_>
    <_>
      <rects>
        <_>
          15 3 3 21 -1.</_>
        <_>
          15 10 3 7 3.</_></rects>
      <tilted>0</tilted></_>
    <_>
      <rects>
        <_>
          15 6 9 9 -1.</_>
        <_>
          18 6 3 9 3.</_></rects>
      <tilted>0</tilted></_>
    <_>
      <rects>
        <_>
          16 1 8 15 -1.</_>
        <_>
          16 6 8 5 3.</_></rects>
      <tilted>0</tilted></_>
    <_>
      <rects>
        <_>
          19 8 4 4 -1.</_>
        <_>
          19 8 2 2 2.</_>
        <_>
          21 10 2 2 2.</_></rects>
      <tilted>0</tilted></_>
    <_>
      <rects>
        <_>
          20 1 4 3 -1.</_>
        <_>
          22 1 2 3 2.</_></rects>
      <tilted>0</tilted></_>
    <_>
      <rects>
        <_>
          20 7 4 8 -1.</_>
        <_>
          20 7 2 4 2.</_>
        <_>
          22 11 2 4 2.</_></rects>
      <tilted>0</tilted></_>
    <_>
      <rects>
        <_>
          20 12 2 3 -1.</_>
        <_>
          21 12 1 3 2.</_></rects>
      <tilted>0</tilted></_></features></cascade>
</opencv_storage>
